4 5
0.551921 0.0869882 -0.262912 -0.501355 
0.752406 -0.0933559 0.722706 0.279543 
-0.202513 -0.216054 -0.617812 -0.140456 
0.491972 -0.407283 -0.115993 -0.737783 
-0.578837 -0.0523866 0.511992 0.367295 
0.223724 0.393595 0.802172 0.802268 
0.162953 -0.475445 0.128498 -0.315917 
-0.303687 0.12485 0.268045 -0.774119 
0.364516 0.128076 0.415941 -0.459644 
0.162174 -0.0861663 0.683051 0.318203 
-0.926076 -0.018114 -0.66996 -0.865199 
-0.598367 -1.07269 -0.124294 -0.207751 
-1.03695 -0.5979 -0.763219 -0.542301 
-0.526259 -1.29327 -0.547138 0.460049 
-0.805972 -0.306253 -0.508657 0.554629 
0.0963934 -0.0442245 -0.437273 0.661068 
0.641445 -0.521734 -0.812236 0.00804503 
-0.271644 -0.19827 0.32273 -0.621599 
-0.654538 -0.0532808 0.0852438 -0.435054 
0.406807 -0.763775 -0.622611 -0.917364 
3 2
-0.0600007 0.68342 -0.521625 
-0.897841 -0.605866 0.136146 
-0.400753 -0.281274 -0.14049 
0.478424 0.921089 0.503092 
0.511046 0.0765316 -0.610898 
0.52878 -0.123652 -0.101971 
90 10
-0.854544 0.619897 0.110267 0.372408 0.191968 -0.820609 -0.440786 -0.100964 0.14273 0.845737 -0.440191 -0.659478 -0.205039 0.020779 -0.0877039 -0.694211 0.0777823 0.183505 -0.0561646 0.0972874 -0.2316 0.644845 0.365031 -0.491501 0.729723 -0.659475 -0.266641 -0.508776 0.0717366 0.180775 0.674836 -0.478737 -0.772096 -0.0311869 1.11239 -0.666277 0.453198 -1.10367 -0.310889 0.496391 0.643227 -0.0461834 -0.671561 0.663479 0.527842 0.697387 0.740098 0.122518 -0.485122 -0.161545 0.435131 0.0266413 0.418214 0.67108 0.910733 -0.565367 -0.111914 -0.72966 -0.0540137 -0.398745 -0.478205 -0.421233 -0.390496 -0.680909 0.612583 0.20932 0.0537501 0.590217 -0.290447 0.505498 -0.0438965 -0.157382 -0.228563 -0.351538 -0.47713 -0.751741 -0.0571122 -0.265465 -0.178558 -1.10385 1.46472 -1.11089 -0.13151 0.817371 0.333509 -0.498329 -0.350964 1.24855 0.766027 1.18732 
0.210417 0.661961 -1.18566 0.471778 0.515214 -0.588835 -0.107976 0.636601 0.737557 0.267953 -0.328295 0.488881 0.820073 0.708883 -0.695099 0.272602 -0.477228 -0.866495 -1.1908 -1.43804 0.522899 -0.734586 0.379721 -0.340817 -0.775198 -1.12264 -0.525812 -0.573601 -0.735074 0.595516 0.0182152 0.115185 -0.472963 0.16504 -0.0680704 -0.623337 0.493733 -0.32797 -0.848088 0.113597 -0.383741 1.05161 -1.22021 -0.502183 0.490147 -0.731775 0.532128 -0.276636 -0.727166 0.420629 0.221021 0.0142357 -0.445667 0.669893 0.347628 -0.720986 0.386705 0.323097 -1.13958 0.0349226 0.768461 -1.13078 -0.879203 -1.01846 0.502346 0.8084 -0.310493 0.231841 -0.247936 0.490398 0.188856 -0.0341178 1.16399 0.0969382 0.266412 0.295931 -0.171204 -0.311553 0.058857 0.372612 -0.611082 -1.19086 0.407083 0.347397 0.858143 0.748985 0.0172798 1.11609 0.90656 0.0994746 
-0.296096 -0.668982 0.694348 0.620801 0.39823 0.614676 1.09785 0.491763 -0.0902084 -0.358269 -0.38451 -0.364078 -0.509246 0.0385478 -0.207594 1.48323 0.0289937 0.347001 -0.286375 -0.172481 -0.0460755 0.492705 -0.407628 -0.888194 0.828223 0.519026 0.864051 1.0491 0.494363 1.28642 -0.263686 -0.157395 -1.24655 -1.06322 0.63864 0.102255 0.00552345 0.598988 0.495167 -0.374364 -0.904656 -0.367403 0.0719081 0.36344 -0.622412 0.230234 0.881184 -0.146025 -0.802135 1.21022 -0.00355975 0.819784 -0.613328 -0.648299 -0.969331 -0.249863 -0.127277 -0.545222 -0.297723 -0.500859 -1.19896 0.56477 -0.652715 0.576926 -0.137859 -0.5552 -0.405997 -0.255037 0.414048 1.45084 0.0125788 0.141001 0.497744 0.109052 -0.0888406 -0.238364 0.438918 0.724774 0.295148 0.83549 0.0875823 0.866358 -0.111098 0.60354 -0.439456 1.06588 0.272276 0.083347 -0.219626 -0.107846 
-0.949674 0.316457 -0.0901759 -0.252933 -0.869343 -0.534025 0.0526426 -0.0851906 0.858837 0.761628 0.427797 0.73326 0.206575 0.260874 0.292816 0.338501 1.05492 0.659901 0.387979 0.432621 -0.922779 -0.250421 -0.895972 -0.732555 -0.427458 -0.952009 -0.00170146 0.467448 0.058708 -0.421148 0.939879 -0.179399 -0.703174 0.642696 0.00263145 -0.770076 -1.0107 -1.14189 -1.37984 -0.370806 -0.503271 -0.855169 -0.641423 -0.130219 -1.2358 0.403943 1.18848 0.377204 0.339646 0.344168 0.552888 0.761324 0.548927 0.87303 -0.629174 -0.979221 -0.322376 -0.602445 -0.175364 -0.0934702 -0.2312 -0.444013 -0.602896 -0.418709 -0.818792 0.198125 0.928791 -0.309211 0.44313 -0.416188 0.945053 -0.307799 -0.291224 0.233799 -0.0234906 -0.387914 0.245238 -0.19211 0.0240186 0.0347722 -0.265636 -1.17073 -0.894334 0.911963 -0.74364 0.629805 -0.369162 0.350946 0.417966 -0.445748 
0.986472 -0.0449455 0.50094 0.111824 -0.634424 0.163382 -0.627057 -0.551092 -0.527763 -0.300172 0.355904 0.386624 0.962462 0.349508 0.800612 0.0469213 -0.103187 -0.0376168 0.707847 0.402223 -0.182237 -0.64078 -1.14859 -1.06315 -0.321719 0.342696 -1.13499 -0.371061 0.472553 -0.407131 0.292599 -0.19648 -0.202716 -0.129587 0.0299471 0.302184 -0.73452 0.369 -0.174349 0.213234 -0.538215 0.0887262 -0.895959 0.61143 -0.835578 -0.188847 -0.198849 0.361792 -1.29986 0.504903 -1.02401 0.850368 -0.547159 0.0939198 -0.159558 0.404564 -0.248662 0.568112 0.211689 0.462074 0.403225 -1.14313 -1.21968 -0.793104 -0.888864 -0.449022 -0.193922 0.173394 1.02363 0.540134 0.619262 0.632769 -0.839283 0.535888 0.0407562 -0.160867 0.343205 -0.0266453 -0.272008 -0.741614 -0.176936 -1.00112 -0.255469 0.828407 -0.463918 1.027 1.00438 0.584169 0.04236 1.09053 
-1.04974 0.677407 0.291888 0.546816 0.664761 0.695535 0.329359 0.0243057 0.0985381 -0.367407 0.547936 -0.090733 0.169574 0.826688 -0.452086 1.04119 1.32038 0.993043 -0.108153 0.407658 0.0404196 0.236661 -0.529237 -0.222849 0.108491 -1.12968 0.128898 -0.635129 0.577763 0.203982 -0.231399 0.321285 -0.485437 -0.662144 0.154617 -0.0792763 0.386473 0.363935 -0.295113 -1.27039 0.756046 -0.0600656 0.371464 -1.05952 -0.904303 -0.123354 0.934652 0.245842 -0.202084 -0.409897 -0.463802 0.708815 0.467949 0.993279 -0.0818086 -0.33535 -0.675532 -0.135865 0.656465 0.367435 0.517532 0.822479 0.612885 0.00252456 0.494801 0.362562 0.208676 0.0559462 1.18863 1.18087 -0.0622737 0.712207 -0.423431 0.178499 -0.637689 -0.0353179 -0.155369 0.170978 -0.610518 -0.159489 0.567266 -0.421864 0.533536 0.524838 0.501601 -0.0735909 0.460637 -0.460224 -0.274915 -0.00202573 
1.25643 -0.67537 -0.62463 0.773655 0.700551 0.402599 -0.12985 1.16047 0.127124 -0.17982 -0.498031 -0.942225 -0.892062 -1.03326 0.582483 0.735999 0.742228 0.556394 -0.425486 -0.353326 -0.830839 -0.0123 -0.0825666 -0.790998 0.34593 -0.833971 0.664679 -0.76128 -0.490812 0.0726136 -0.765843 -0.146449 -0.105233 0.223608 0.0640461 0.680219 1.08234 0.0701321 -1.02243 0.316816 0.73872 -0.614968 -0.256331 -0.590588 -0.0918783 -0.00483403 -0.223878 -1.53207 0.23789 -0.443865 0.667907 0.178862 -0.836334 0.395968 -0.53369 -0.450106 -0.610117 0.0865242 -1.20227 8.59848e-05 -0.178881 0.729098 -0.812183 -0.542712 -0.389716 -1.93806 0.793714 0.137343 0.864884 -0.308781 -0.0642254 0.14668 0.622842 0.694427 -0.346041 0.0783953 -0.102295 -0.252529 -0.24438 0.169161 -0.624077 -0.346423 -0.200451 0.359264 0.174178 0.352262 0.643721 0.925676 -0.367534 0.428451 
-0.55088 0.701559 0.392397 -0.215978 0.0958598 0.522886 0.609478 0.394243 -0.367795 -0.724527 -0.119451 0.789827 -0.928225 -0.508828 0.223342 0.665858 1.15915 0.119026 -0.482651 -0.393464 0.442397 -0.206351 -0.442279 -0.87157 -0.238562 -0.173509 0.569929 -0.0598044 0.408163 -0.0500046 -0.104317 -0.0872858 0.545811 0.284989 -0.339446 -0.245249 1.32981 -0.0890836 -0.734059 0.309328 0.117374 -0.227844 0.0117388 -0.588859 -0.589813 0.139766 -0.158629 0.0675932 1.19098 -0.113565 -0.172352 0.0115005 0.09927 0.372507 1.03399 0.0696844 0.918228 0.350577 -0.325068 0.456803 0.615011 -1.3701 0.105197 -0.757716 -0.170556 -0.248152 -0.297804 -0.60013 0.485749 -0.940838 0.917312 -0.325312 -0.304696 -0.379943 -0.0800809 0.620493 0.524498 1.07218 -0.697079 -0.159201 0.55395 -0.205427 0.144833 -0.390084 -1.30509 0.0540626 -0.619908 0.436091 0.475804 -1.07016 
0.730488 0.797166 0.640848 -0.665144 0.808969 0.691785 -0.194976 0.155463 0.106677 1.03302 -0.63399 -0.218724 -0.701065 1.23501 -0.576331 0.316043 0.893828 0.00766071 -1.09083 -0.806485 0.172225 0.282975 0.193098 -0.634686 -1.03349 -0.484002 0.602877 -0.814063 0.36288 0.550303 0.879583 0.3599 -1.16532 -0.548013 -0.129871 -0.0159101 -0.177547 0.419394 0.314349 -0.411491 -1.20171 0.237819 -0.499291 0.621069 -0.773119 -0.45288 0.993853 -1.04828 0.239077 -0.586976 -0.607217 0.703466 -0.6502 0.0333322 -0.822108 -0.164311 0.334502 -0.13327 -0.115727 0.517578 -0.455047 0.790258 -0.683443 0.35429 -0.125897 1.18302 0.863166 -0.649836 1.3122 -0.829217 -0.135203 0.781161 -0.0362905 0.158984 0.53701 0.444609 0.45319 0.609201 -0.399257 0.337581 -0.318366 -1.14416 0.32105 0.19172 -0.418044 0.613516 1.24351 -0.539864 0.836851 0.471481 
0.346799 0.930713 -0.239249 -0.353415 -0.627226 -0.709698 -0.724993 -0.786463 0.293388 -0.44394 0.107416 0.975838 0.375221 0.0836458 -0.552404 -0.56722 0.0530593 -0.459437 0.140738 0.600606 0.108319 -0.737252 -0.315845 -0.461731 -0.638067 -0.616543 -0.344271 -0.00313065 -0.69398 -0.239146 -0.392043 -1.0452 -0.071318 0.401661 -0.949096 -0.948308 0.190718 -0.667875 -0.125662 0.157117 -0.849252 -0.0813479 -1.29016 0.589959 -1.31371 0.505576 0.0766418 0.150985 -0.34243 0.410587 -1.15602 0.723778 -0.239337 -0.0177831 -0.0567289 0.85265 0.632562 0.907323 -0.229235 0.336039 -0.680328 0.083496 -1.06391 -1.00779 -0.0548367 0.0318391 0.977471 -0.461773 0.855017 0.322293 -0.15238 0.0802274 0.690796 -0.630032 -0.54221 -0.422329 -0.365956 1.06844 0.739655 -0.102872 -0.441212 -0.798075 -0.426724 0.223278 -0.629922 -0.438119 1.37148 0.701667 0.0310172 1.05803 
-1.27138 0.141613 0.0907973 0.0892326 0.27351 -0.872112 -0.487129 0.228937 0.259961 -1.18625 