5 4
-0.356223 -0.434683 -1.08933 -1.69188 -0.446933 
-0.782262 0.257238 -0.0408279 -0.888398 -0.609234 
-0.664632 0.0279168 0.21815 -0.247869 0.3494 
-0.161575 -0.582704 0.0453665 0.486325 0.0178333 
1.3119 1.03878 1.05078 0.724934 0.874508 
-0.306546 0.0887937 -0.520212 -0.414524 -0.242907 
0.250265 -0.994241 0.065974 -0.690896 -0.270861 
-0.529076 -0.369723 -0.510414 -0.0805066 -0.2077 
-0.826086 -0.593217 -1.17093 -1.06264 -0.997729 
-0.845274 -0.3062 -0.302117 -1.09253 -0.748135 
0.0694832 -0.587052 -0.77938 -0.671853 -0.36598 
0.763277 0.0782371 0.24066 -0.427038 0.416086 
0.981856 1.40422 -0.0331864 0.965326 1.26987 
0.1762 0.000161904 0.986715 -0.0993824 0.380905 
0.563627 -0.268335 -0.547437 0.146492 0.899535 
-0.0124925 0.379911 -0.813764 -0.829959 -1.13263 
-0.379289 0.508751 -0.733712 -1.20613 -0.821445 
0.32664 -0.188012 -0.511257 -0.297374 -0.443244 
0.144133 0.497749 0.451945 -0.571277 -0.930537 
1.25887 0.388609 0.399532 -0.657492 0.519841 
3 2
-0.464201 0.214368 0.69627 
-0.634673 -0.733587 -0.730291 
-0.207876 1.09156 -0.237576 
-0.161786 0.343334 0.0209791 
-0.578809 -0.711737 -0.156111 
-1.01327 0.0555844 0.932447 
32 20
-0.228535 0.464813 0.228229 0.990501 1.2149 -0.477834 0.561153 0.463775 -0.691119 0.79909 1.07101 -0.452797 0.352734 -0.533371 1.91816 -0.079595 0.917151 -0.246317 -0.0603214 -0.380141 0.912901 0.308811 -0.872369 0.542958 0.33179 0.122519 -0.0152439 0.647181 0.0842203 0.394559 0.651273 -0.271738 
0.655131 -0.295016 -1.47192 -0.227494 -0.750341 -0.141255 -0.0470634 -0.359473 -0.544296 0.454391 -0.933323 -0.779078 -1.17291 -0.768602 0.629474 -0.629864 0.523611 0.00468685 -1.73298 0.449383 -0.0358388 -0.434838 -0.619663 -0.182743 0.520582 0.679449 -0.951479 0.833237 -0.870975 -0.241723 0.0879171 0.39076 
0.931399 1.83206 0.961972 1.09091 -1.53878 0.0259534 -0.328158 -1.05435 0.245616 0.355925 -0.291689 -0.805517 0.807845 -0.875726 -0.393989 -0.711902 -0.270829 0.0397538 -0.414469 -0.315105 1.06308 0.676846 -0.316316 0.19584 -0.776309 1.31304 0.350987 0.726179 -0.70061 -0.302711 -0.738227 -0.378223 
-1.07259 -0.876309 -0.101438 0.00820093 -0.103237 0.0625654 0.212605 0.231585 0.699535 0.513896 0.119549 1.09791 -0.680647 0.428332 0.110467 -0.277094 0.679254 -0.381501 0.225638 -0.756156 -0.295657 -0.387865 -0.940835 -0.105253 -0.807872 0.655483 1.42959 -0.108118 0.631815 1.13279 -1.37619 1.09785 
-0.373897 0.157159 0.475655 0.317198 1.08837 -1.42317 -0.111865 -0.838817 0.576633 0.39223 -0.289728 -0.502299 0.418467 0.260635 1.08034 -0.388739 -0.935132 1.26824 -0.293358 -0.213822 -0.481025 -0.119566 0.681691 1.00955 1.28392 0.746196 0.774096 0.913179 -0.660806 1.32049 -0.172674 -0.670637 
0.102558 0.108024 -0.00622984 1.10179 0.170128 0.476259 -0.422405 -0.54598 0.544109 -0.0982993 -0.572101 0.499177 0.752193 0.42337 0.0569521 0.0897461 -0.183206 -0.855002 0.402755 1.26093 0.357931 1.33238 0.354507 0.327071 -0.356759 0.742738 1.35491 -0.0708304 1.50224 -1.99642 0.142577 -0.370862 
1.03925 1.2959 -0.367559 0.410478 -0.349994 -0.120398 -0.575747 -0.335615 -0.873423 0.0139842 0.952687 -0.525814 0.400783 1.04022 0.15609 0.908183 0.526045 0.25715 -0.475944 -0.399444 0.328232 -0.994334 0.15942 -0.849259 -0.723057 1.07496 -2.09185 1.21436 -0.636442 -0.872015 -0.421975 -0.80533 
0.423949 0.875065 -0.236092 0.114731 -0.780197 -0.487516 -0.319123 1.25738 0.473828 -0.341022 -0.377012 1.26506 0.0143769 0.0788583 -0.501139 0.0921383 0.68027 0.135924 -1.71099 -0.131702 0.896099 0.797537 -0.082695 0.766773 0.240781 -1.23493 -0.435973 -0.633946 0.917534 -0.274407 0.505473 0.441367 
1.05461 0.50816 0.929883 -0.0575263 -0.443732 -0.297293 -0.0466139 0.0836118 1.18517 0.109382 0.38087 0.425748 -0.129944 -0.213928 -0.644988 0.06883 0.042525 0.74184 0.743569 1.07966 -0.767911 0.392633 -0.428797 0.437865 -0.148343 -1.23519 -1.08123 -0.245019 -0.433782 0.242805 0.35465 -1.04409 
-0.978859 -0.291556 0.394522 -0.239175 0.379856 0.28685 1.19703 1.87657 0.569715 0.0486385 -0.893749 -0.476173 -1.1107 0.228129 -0.931899 0.806055 0.10965 -0.479017 -0.229368 -0.598754 -1.30906 1.16898 0.94677 0.208823 -0.450928 -0.768083 0.490498 -1.24571 0.112986 0.190169 0.727162 -0.656488 
0.210796 -0.162966 0.136976 -0.460576 -1.37611 -0.771748 -0.358565 -0.144541 1.24381 -0.334978 1.06245 0.258536 -1.17537 0.403855 -0.425137 0.701183 0.13448 0.718188 -0.49632 0.723757 -0.716688 -0.627146 -1.07051 -0.57096 0.51727 0.233605 2.03899 -0.070061 1.59852 -0.190949 0.23386 0.129655 
0.794738 -0.27794 0.631812 0.815438 -0.453528 -0.0869537 -0.228952 -0.918433 -0.34171 0.377714 0.47188 0.510244 -0.573884 -0.156347 0.776932 1.07189 -0.0798057 -1.07399 1.0033 0.705304 1.52555 -0.789665 0.834491 -1.28427 0.210192 -0.680284 -0.154973 0.250219 0.472243 -0.833489 0.134413 -0.931249 
-0.329223 0.192934 0.159816 0.158076 1.20313 2.1664 0.46436 0.549808 -0.586273 -0.792148 -0.799355 0.0641675 -0.183443 0.153929 -0.681724 0.117466 0.445137 0.634635 0.588821 0.0775746 -1.40976 0.618706 -0.36753 -0.398287 -0.150977 0.0627106 -0.4632 -0.285891 -0.24362 0.241093 0.0363891 0.171679 
1.75248 1.62486 1.04951 -0.400042 0.245011 0.655808 -0.958961 0.969366 0.731459 1.01637 1.36933 0.484084 1.40379 -0.622595 -0.447508 -0.354971 0.545971 -0.708897 0.667909 1.23576 -0.905751 0.363789 -0.12677 0.311509 -0.555779 0.8706 0.0282495 0.667372 -1.07243 0.399388 0.963005 -0.451793 
0.239229 2.02591 0.136949 -0.375106 0.663489 -0.705492 -0.698406 0.16907 0.500942 0.847185 0.991923 -0.405093 -0.565177 1.16802 -0.871274 0.962025 -0.544261 0.319143 0.742134 0.682923 0.361086 0.150698 -0.894632 -0.660617 0.225182 0.773924 0.642039 0.109798 -1.14232 -0.389791 0.384889 -0.047232 
1.19026 0.635035 -0.316044 -0.314957 0.513096 0.371496 0.985819 0.678498 0.541463 1.98825 -0.800051 0.358721 0.26271 0.503798 -0.835017 -0.729041 -0.138744 1.1335 -0.816179 -0.769356 0.914619 -0.298457 -0.356101 0.182099 -0.289649 -0.314403 0.758113 -1.65703 0.863366 -0.509491 -0.392294 0.780437 
-0.255616 1.07369 1.19119 0.901532 0.222516 0.954418 -0.215281 -1.26886 -0.905785 -1.89413 -0.376757 -0.989898 1.06537 0.833108 0.342141 0.260445 -0.311565 0.180859 -0.460246 -0.212116 -0.146931 -1.26846 1.7604 -0.578865 0.539226 0.000259231 -0.833428 0.264106 -1.43667 0.362863 0.253827 0.548271 
-0.43761 -0.175611 0.0525845 -0.998919 0.309689 0.892518 0.0393469 0.450233 0.123816 0.624709 0.360135 0.652871 -1.21448 1.34628 0.0803846 0.0164526 -0.0762564 -1.0497 1.57883 -0.125599 -0.568018 0.0335561 -0.414855 -0.385171 -0.148124 -0.313278 0.610933 -1.17993 -0.146154 -0.339465 -0.610582 0.87207 
-0.113394 -0.44 -0.104473 0.231877 1.34428 0.243186 -0.356064 -0.0625874 -0.669596 -0.432957 0.597379 0.138903 -0.00507309 0.06544 0.0838925 0.98893 0.06868 0.282574 1.06667 0.57364 -0.935164 0.903226 -0.512035 -0.114002 0.663961 0.482067 0.078364 0.232405 0.231968 0.636628 0.562999 -0.000898455 
0.249423 0.649179 -0.955036 0.451631 0.0767837 1.27439 0.0795537 -0.374025 -0.985461 -0.360306 0.478036 0.390805 0.0151644 -1.51228 -0.662169 0.0553932 1.42549 1.02674 -0.12733 -0.402566 0.503161 -1.07607 1.04405 -0.116901 0.162348 -0.541991 0.238251 -0.149608 -0.59023 -0.112367 -0.512386 -0.824804 
1.38452 -0.349136 -0.612836 0.770052 0.166166 -0.945908 -0.517851 -0.0633192 -0.659932 0.762173 0.0290946 0.12123 0.750419 0.303573 -1.08577 -0.280349 0.159925 0.808204 0.543745 -0.306817 
20 10
-0.811221 -1.55506 -0.404656 -1.76179 -0.836369 1.36897 -0.909572 0.315313 0.705632 0.0508391 -0.00265922 -0.13249 -0.57427 0.924368 0.549567 -1.07188 0.269614 0.424894 -0.785019 -0.42699 
0.293478 1.22139 1.4874 -0.0217113 0.801878 -1.85257 -0.455347 -0.643532 -1.63841 -1.50783 0.0492358 -0.708131 0.256536 0.182675 -2.04772 -0.45696 0.519184 -1.07801 -0.412561 0.101894 
-0.297033 -0.626572 0.521604 -0.0613705 -1.33025 0.248233 0.920753 0.433709 0.219092 -2.32323 0.853704 0.363752 -0.330671 0.389002 0.205858 1.16644 -0.499737 -0.442679 -0.848684 0.825009 
0.376995 -0.156563 -1.27138 -1.46318 -0.269293 -0.63191 0.856672 -0.200475 0.0413353 -0.476345 -0.621209 0.0933768 -0.311203 0.7023 0.255957 0.592611 0.560944 -1.25188 -0.875671 0.569685 
-0.409066 0.32449 -0.351873 -0.326271 -1.2353 0.245323 -1.07567 0.810239 -0.78608 -0.199901 0.617619 -0.807383 0.182526 -1.14483 -1.22716 1.19723 -1.80704 -0.240066 -1.1922 -0.830451 
0.0547933 -0.585937 -0.378764 -0.663845 0.909109 -0.885641 -0.21292 -0.197741 0.872469 0.458394 -1.71795 -0.539975 -1.18469 -0.557778 -0.069961 -0.455435 -0.415386 0.194585 0.254092 -0.711927 
-0.143083 -0.293274 -1.29986 0.0932846 0.217535 -0.450976 -1.02167 -0.170232 0.681722 -0.598843 1.18184 -0.495419 0.527396 0.33581 1.42335 -0.286745 -1.60247 -0.902089 -0.657535 -1.34824 
0.39446 -1.30709 -1.24211 0.126299 -1.08608 0.274062 -0.520614 -1.44923 -0.667279 -0.623132 -0.991941 2.13382 0.319945 -1.22711 -0.884289 -0.752821 -0.197628 -0.172754 0.108855 0.249271 
0.0121743 -1.50036 -1.09115 0.365119 0.530922 -0.579246 -0.90079 -0.581498 -0.789753 -0.57154 -0.177755 -2.07536 -0.356281 -0.431325 0.960207 0.0655967 0.520023 -0.244792 -0.048826 -0.408833 
-0.821471 -0.163689 -1.34557 0.471104 -0.401607 -0.110529 0.0167502 0.457829 -0.661227 0.928169 -0.332285 -1.16645 -0.88654 -1.51698 -0.967467 -0.963286 0.471724 -0.738161 0.665887 0.147763 
-1.17286 -1.13371 -1.19489 -0.117112 0.492396 -0.0583211 -0.651029 -0.737109 -0.33288 -0.409353 