5 4
0.633596 0.162515 -0.401117 -0.81172 0.592421 
-0.348734 0.78908 0.612965 -0.535465 -0.305702 
-0.42843 0.439032 0.641552 -0.293007 0.482724 
-0.17597 -0.856635 -0.18248 0.548115 -0.0692271 
0.90146 0.590334 0.965464 0.812912 0.843789 
-0.577021 -0.16294 -0.634416 -0.289509 0.21333 
0.545172 -0.930142 0.269216 -0.210914 0.431339 
-0.0572001 0.173174 -0.180892 0.84278 0.56314 
-0.825545 0.141522 -0.547094 -0.604833 -0.297722 
-0.847334 0.431083 0.234403 -0.757751 -0.134385 
-0.280906 -0.0841037 -0.29327 -0.968197 -0.143257 
0.793015 -0.408555 -0.296145 -0.453403 0.520964 
0.534364 0.420357 -0.274521 0.978322 0.891553 
-0.55392 -0.693305 0.393101 -0.296893 -0.206185 
0.50559 -0.372522 -0.655009 0.0592046 0.443476 
-0.159579 0.795008 -0.610581 -0.551981 -0.694736 
-0.156233 0.908083 -0.782347 -0.986431 -0.303043 
0.520699 -0.0591088 -0.555025 0.0718089 0.178338 
0.169051 0.461985 0.4977 -0.296777 -0.601498 
0.839257 -0.3242 -0.175402 -0.982404 0.503155 
3 2
-0.547775 0.287553 0.488065 
-0.66802 -0.957501 -0.957091 
-0.429344 0.616704 -0.517794 
-0.614113 0.130762 -0.10312 
-0.213352 -0.902915 0.219506 
-0.305528 -0.238658 0.625451 
32 20
-0.410898 0.620168 0.43524 0.145506 0.493316 -0.88156 -0.114338 0.0361646 -0.0380605 0.224682 0.579757 -0.310214 -0.581627 -0.335496 0.923251 -0.127379 0.830626 -0.720094 -0.507232 0.590963 0.902438 0.416245 -0.572003 0.733884 0.78898 0.513688 0.289419 0.233926 -0.122239 0.108367 0.677793 -0.286848 
0.609148 0.412077 -0.774755 -0.039898 -0.435335 -0.0293705 -0.474321 -0.790211 -0.712624 0.168172 -0.337674 0.363417 -0.0629709 -0.268074 0.909624 -0.393387 0.492445 -0.0884012 -0.837492 0.156094 0.0269039 -0.646872 -0.972595 0.0139894 -0.16825 0.248363 -0.823612 0.798531 -0.678827 -0.627713 0.63752 0.1761 
-0.583398 0.987666 0.724234 0.576584 -0.847184 0.456216 0.313442 -0.897437 0.720509 0.703935 -0.823942 -0.0647557 0.573971 0.274984 -0.440879 -0.913047 0.533197 0.221905 0.408773 -0.704393 0.220992 -0.103004 -0.952854 -0.635119 -0.929627 0.696877 0.15136 0.446477 -0.476377 -0.414751 -0.990987 -0.556243 
-0.21234 0.517166 -0.376544 0.290258 -0.591688 -0.676731 -0.603805 -0.598482 0.779634 0.0794377 -0.595586 0.904261 -0.204933 0.988232 -0.384836 -0.611137 0.501985 -0.365339 0.507282 -0.303077 -0.331585 0.0204886 0.14727 0.314322 -0.331738 0.662469 0.723151 -0.700904 0.526845 0.849292 -0.822286 -0.0753421 
-0.831065 -0.960437 -0.371796 0.242 0.824334 -0.649573 -0.0637098 -0.147736 0.994072 0.0788839 0.0247235 0.568221 0.548933 0.57644 0.382134 -0.421916 -0.543545 0.963224 -0.355857 -0.345213 -0.375854 0.101983 0.468685 0.761268 0.204454 0.092066 0.927397 0.830479 0.112235 0.12362 -0.195605 -0.931821 
0.341797 0.783036 0.452593 0.891783 0.457421 0.511298 -0.098305 -0.298783 0.150038 -0.104078 -0.610511 -0.745432 0.984137 0.922252 0.812536 0.268686 -0.0716145 -0.383461 0.406305 0.320711 -0.573919 0.938194 -0.193553 0.906768 0.808581 0.281372 0.658932 -0.598743 0.528899 -0.785988 -0.227555 -0.113376 
0.511635 0.606882 0.0830389 -0.421182 -0.197603 0.249425 0.126987 -0.140696 -0.914412 -0.118862 0.748497 -0.34028 -0.181522 0.845431 0.248087 0.958769 -0.243602 -0.744546 -0.962761 -0.415937 -0.489421 -0.903291 -0.631506 -0.988097 -0.315954 0.917023 -0.967179 0.622158 -0.438281 -0.946356 0.129235 -0.742806 
0.641599 0.33471 0.305457 0.470442 -0.0678242 0.122907 -0.20493 0.984793 0.946797 -0.478833 0.0228619 0.572479 0.892057 -0.435545 0.629214 0.145888 0.728537 0.453523 -0.724249 -0.360723 0.0522087 0.537501 -0.767969 0.560983 -0.165607 -0.184007 -0.661387 -0.9893 0.193105 0.149176 0.575305 0.94402 
0.447759 0.450378 0.475469 -0.0692054 0.246585 0.683063 0.202648 0.627798 0.743925 -0.54199 -0.248127 -0.524748 -0.33642 -0.5211 -0.54391 0.408543 0.383824 -0.0671706 -0.161477 0.703686 -0.455066 -0.257332 0.275875 0.229971 -0.307688 -0.834558 -0.806284 -0.986206 -0.160913 -0.18153 -0.467764 -0.235673 
-0.83249 0.170068 0.98796 0.510989 0.248738 0.150609 0.304012 0.733867 0.317942 0.962428 -0.716336 -0.763497 -0.713084 -0.859718 -0.580029 0.327776 -0.140444 -0.789446 -0.192093 -0.533575 -0.581269 0.421152 0.92832 0.00535115 0.00834329 -0.146105 0.853139 -0.710475 -0.507444 0.0232469 0.411733 -0.500005 
-0.567011 -0.142702 0.495127 -0.727064 -0.963 -0.658969 0.839244 -0.506598 0.977933 -0.78801 0.591919 0.171883 -0.850262 0.47224 0.939269 0.112713 0.284377 0.0428904 -0.713282 0.224371 -0.866089 -0.668772 -0.712347 -0.456663 0.372505 0.116334 0.799886 0.344422 0.443998 -0.0126017 -0.464837 -0.125944 
0.689972 0.113729 -0.581665 -0.965347 -0.68936 -0.484617 0.68405 -0.768999 -0.239124 0.331823 -0.27374 0.447308 -0.386134 0.161824 -0.304789 0.358286 0.670978 -0.865617 0.645032 0.119478 0.517104 -0.338643 0.437068 -0.643316 0.961935 -0.46595 -0.112816 -0.409392 0.63905 -0.993848 0.565619 -0.975186 
-0.392962 0.306236 -0.0307 0.554429 -0.130448 0.783709 0.291982 0.654341 0.0649757 -0.789877 -0.859287 -0.489256 -0.980032 -0.612383 -0.356542 0.331557 0.826646 0.877713 0.308333 0.3413 -0.970771 0.515949 0.0198392 -0.52601 0.576832 -0.382086 -0.23151 -0.949569 -0.563238 -0.719943 -0.409557 0.52698 
0.901623 0.807108 0.897698 -0.282619 0.74573 0.593512 -0.609893 0.94269 -0.0569984 0.287756 0.823235 0.767753 0.710734 -0.0452119 -0.0545757 -0.682524 0.574973 -0.317674 0.227163 0.978595 -0.803658 0.821657 0.872586 0.463727 -0.190554 0.908165 0.123483 0.538397 -0.108753 -0.266015 0.616753 -0.818147 
-0.461932 0.604961 0.335278 -0.284445 0.441839 -0.253229 -0.392934 0.388508 0.342418 0.815376 0.632513 -0.21118 -0.949484 0.885544 -0.0303422 0.648131 -0.708135 -0.453353 -0.298038 0.744389 0.719694 0.352079 -0.582161 -0.663385 0.262028 0.690225 0.457394 -0.0494286 -0.734952 -0.435119 0.425077 0.76196 
0.691166 0.828924 0.70667 0.470359 0.0162642 0.0298989 0.548194 -0.254524 0.456884 0.878199 -0.45037 0.359135 -0.034634 0.216375 -0.982226 -0.697238 -0.228588 0.822503 -0.37229 -0.332307 0.84663 -0.2465 0.178524 0.290265 0.222378 -0.325689 0.36506 -0.843582 -0.346456 -0.349593 -0.628687 0.8833 
-0.599898 0.522033 0.91598 -0.267738 0.230852 0.985126 -0.253226 -0.793534 -0.814563 -0.911266 -0.643405 -0.998376 0.611027 0.833862 0.791562 0.607656 -0.776067 -0.450986 -0.538635 -0.290938 0.0307564 -0.675548 0.906589 -0.706152 0.772065 -0.168921 -0.275655 -0.324827 -0.951421 0.115067 0.176876 0.627408 
0.895298 0.559506 0.133773 -0.757326 0.726058 0.854139 -0.44349 0.276347 -0.723852 -0.130487 0.353693 0.099259 -0.458724 0.421265 -0.383494 0.721351 -0.163953 -0.964265 0.742891 -0.41105 -0.162276 -0.40378 0.178262 -0.985549 0.302614 -0.104117 0.98975 -0.76423 -0.207492 0.202768 -0.903555 0.937317 
0.37633 -0.286131 -0.3925 0.219847 0.442202 0.491363 -0.577624 0.320675 -0.579119 -0.52237 -0.138958 -0.128567 -0.816792 0.122793 -0.237196 0.93788 -0.114438 0.315945 0.251727 0.709748 -0.729243 0.460231 -0.0911937 -0.243203 0.573235 0.323109 0.159139 0.262599 0.291574 0.442052 0.329492 -0.197725 
0.111075 0.905985 -0.640639 -0.391097 0.397969 0.772032 0.550862 -0.110049 -0.730521 -0.886399 0.308041 -0.578297 -0.406704 -0.817063 -0.127186 0.256364 0.945945 -0.0888809 0.139411 0.0594932 0.00382178 -0.35242 0.322991 0.330183 0.560513 -0.39813 0.717757 -0.473899 -0.92272 0.200732 0.126545 -0.304151 
0.997364 -0.567253 -0.00318688 -0.112941 0.415862 -0.426698 0.443676 0.751328 0.27273 0.494018 0.416793 0.93546 -0.647714 0.400191 -0.135866 -0.714166 0.290628 0.0964486 -0.319745 0.277243 
20 10
-0.302083 -0.250841 0.364827 -0.909707 0.241585 0.934191 -0.115985 -0.173712 0.0968314 -0.274475 0.811026 0.714064 -0.465145 0.793437 0.588858 -0.72366 0.580281 0.577859 -0.654332 -0.0991968 
0.180485 0.346928 0.541923 -0.0722295 0.798716 -0.795223 0.0550264 -0.20571 -0.210754 -0.137052 0.167778 0.490174 0.682426 0.819538 -0.906939 -0.798509 0.515096 -0.396953 0.309369 -0.112988 
0.482033 -0.428743 0.459989 -0.22506 -0.99642 0.122541 0.65246 0.707817 0.503749 -0.756382 0.825487 0.794101 -0.170106 0.328601 -0.148453 0.890013 -0.939802 -0.529356 -0.942871 0.939496 
0.126384 0.595219 -0.315712 -0.978105 -0.463631 0.517357 0.638853 0.481557 -0.332607 -0.809992 -0.153064 0.95508 -0.647313 0.522688 0.801537 0.697683 0.680449 -0.967096 -0.898267 0.040237 
0.0027132 0.740274 0.664362 -0.053865 -0.87497 0.587088 -0.223344 0.957072 -0.408076 -0.597798 0.993965 -0.956202 0.350742 -0.757615 -0.705074 0.773787 -0.783948 -0.0930009 -0.925271 -0.0708538 
-0.0260805 0.174599 0.877142 -0.714564 0.866791 -0.354791 0.682716 0.0193259 0.913788 0.552619 -0.950107 0.968099 -0.753477 -0.360127 0.437985 0.0162049 0.319405 0.306251 0.558319 0.232329 
-0.415128 0.259909 -0.688068 -0.834656 0.213411 -0.160458 -0.639651 0.288191 0.869839 -0.467097 0.542546 0.100158 0.580662 0.211141 0.949238 -0.368518 -0.188319 -0.857879 -0.924992 -0.815434 
0.436031 -0.875537 -0.302687 0.650396 0.207529 -0.29498 -0.962392 -0.919067 -0.22023 -0.807247 0.330625 0.975098 0.465423 -0.666344 -0.0353705 -0.212941 -0.348797 -0.273073 0.0300895 0.119595 
-0.0138377 -0.517507 -0.656649 0.306798 0.46496 -0.86406 -0.788681 0.50633 -0.301882 0.227237 0.514469 -0.487619 0.278509 -0.928206 0.927693 -0.942071 0.554467 -0.0846902 0.514314 -0.187604 
-0.97117 0.655482 -0.0595532 0.0809776 0.0229168 0.786392 0.994665 0.854612 0.166624 0.72919 -0.644253 0.422549 -0.964332 -0.746914 -0.232711 -0.271558 0.75078 -0.852929 0.483218 0.182066 
-0.999868 -0.731912 -0.937887 0.326243 0.643736 0.395058 -0.638555 -0.664704 0.289016 -0.476671 