5 4
0.222936 -0.110519 -0.454899 -0.85892 0.295673 
-0.581956 0.472055 0.408811 -0.445301 -0.230983 
-0.538566 0.198575 0.467058 -0.249493 0.475705 
-0.0474805 -0.655318 0.0219419 0.705945 0.192301 
1.09955 0.811247 1.13295 1.00509 1.10265 
-0.783377 -0.435114 -0.87977 -0.571795 -0.0916394 
0.108389 -1.21682 -0.11245 -0.576511 0.0207273 
-0.326349 -0.17805 -0.545914 0.398642 0.161074 
-0.855034 -0.131503 -0.814171 -0.838619 -0.580979 
-0.973801 0.0979517 -0.0838472 -0.955329 -0.441819 
-0.604833 -0.42985 -0.560056 -0.875689 -0.361866 
0.380698 -0.284793 -0.185217 -0.340388 0.520694 
0.439975 0.712281 -0.113554 0.901153 1.01399 
-0.143299 -0.172765 0.687018 0.130833 0.265754 
0.480576 -0.0606902 -0.311311 0.277605 0.90428 
0.0229307 0.77348 -0.538996 -0.445233 -0.641441 
-0.0425106 0.82086 -0.666671 -0.855498 -0.321802 
0.530238 -0.05286 -0.466371 0.0917661 0.131479 
0.196071 0.458377 0.513047 -0.257564 -0.53254 
0.929973 -0.189477 -0.0813114 -0.813039 0.591281 
3 2
-0.420475 0.428757 0.498033 
-0.495044 -0.481272 -0.638151 
-0.237607 0.696152 -0.402937 
-0.304846 0.340694 0.0331526 
-0.109309 -0.494632 -0.239129 
-0.442132 0.349264 0.96344 
32 20
-0.530192 0.351467 0.616369 0.229832 0.751524 -0.523576 -0.2029 0.0776779 0.074731 0.447293 1.01218 -0.213639 -0.126637 -0.381623 1.14253 0.124903 0.36685 -0.321914 0.0418178 0.624974 1.4109 -0.437346 -1.12173 0.0771781 0.458914 1.04567 0.535912 -0.126565 -0.491947 0.0802939 0.302839 0.0827697 
0.579415 0.273971 -0.766047 0.0599447 -0.352423 -0.305436 -0.28578 -0.184272 -0.634567 0.00247114 -1.06984 -0.118425 -0.0984305 -0.832451 0.978513 -0.763096 0.2782 0.00983192 -1.40062 0.278253 0.02416 -0.975763 -0.123545 0.268622 0.225014 0.566715 -0.898034 0.261646 -0.722785 -0.447092 0.170153 0.083575 
-0.240296 1.18444 0.944561 0.608582 -1.05574 0.402807 -0.338213 -0.864844 0.351694 0.673649 -1.08319 -0.180129 0.450904 -0.0636504 -0.172072 -0.883908 0.312821 0.116685 0.174623 -0.735178 0.777296 0.417174 -0.829526 -0.196956 -0.591494 0.433381 0.477019 0.652358 -0.547988 -0.218563 -1.15493 -0.292067 
-0.469119 0.228795 -0.527064 0.186286 -0.379883 -0.362623 -0.254285 -0.488607 0.392681 -0.0807144 0.36287 1.24407 -0.213221 0.979295 -0.0586818 -0.3701 0.597189 -0.272735 0.868192 -0.422572 -0.38843 -0.623312 -0.415046 -0.16572 -0.773087 0.544412 1.03023 -0.815103 0.05228 0.804725 -1.28873 0.358306 
-0.726001 -0.650543 -0.0746727 0.454794 0.586106 -0.949075 -0.0551961 -0.587883 0.360239 0.498453 0.765867 0.144201 0.548354 0.082487 0.918128 -0.73867 -0.409196 0.897635 -0.08097 -0.33296 -0.335109 -0.288404 0.42028 0.545729 0.99444 0.222981 0.704419 0.736935 -0.364235 0.441589 -0.330519 -0.561444 
0.529299 0.566442 0.529718 1.13201 0.170212 0.698015 -0.716586 -0.207918 0.646269 -0.709507 -0.190696 0.173046 0.857367 0.800222 0.520891 0.673363 -0.293855 -0.353898 0.217748 0.477196 -0.140248 0.75295 -0.0437745 0.762468 -0.327162 -0.0940009 0.702155 -0.160498 0.760913 -1.21581 0.112641 -0.273815 
0.706282 0.720836 0.0941258 -0.184991 -0.568049 0.075575 -0.356157 -0.282345 -0.861193 -0.723425 0.188965 0.225246 -0.177829 0.734405 0.206621 0.543906 -0.0623465 -0.583366 -1.46954 -0.579411 -0.173003 -0.771545 0.0635513 -0.744986 0.370337 0.511717 -1.43973 0.451956 0.0295026 -0.652858 -0.763079 -0.906497 
0.597524 0.487608 0.28611 0.408411 0.0456236 0.127966 -0.0570783 0.919071 0.360786 -0.273846 0.0660292 0.155463 0.761483 -0.410189 0.34406 -0.0640852 0.999179 0.804618 -0.78396 -0.353828 0.0697937 0.076879 -1.29187 -0.0972779 0.259905 0.103999 0.0490919 -1.21287 0.707591 0.092166 0.200098 0.77613 
0.589903 0.753091 0.548687 -0.137069 -0.271686 -0.0077265 0.198777 0.105193 0.46853 -0.775902 0.19113 -0.471438 -0.182663 -0.664009 -0.682383 0.244855 0.48174 0.31021 0.495666 1.16533 -0.641498 0.83118 -0.0423873 0.330776 0.00890237 -0.640734 0.035348 -0.0230523 -0.13336 0.707621 -0.0443387 -0.29797 
-0.881026 0.0240517 0.754106 0.297047 0.0355308 -0.0493483 0.746795 0.831971 1.23432 0.0410632 -0.245206 -0.299889 -1.91391 -0.35783 -0.69306 0.329852 -0.0366263 -0.786645 -0.0112945 -0.560312 -0.917033 1.04047 0.344485 -0.0241222 -0.544067 0.319688 0.77293 -0.400035 0.47313 -0.350656 0.51263 0.136275 
-0.176566 -0.0898974 0.387204 -0.800437 -1.25553 -0.273128 0.247139 -0.523032 1.37283 -0.155807 -0.0220944 -0.402716 -0.914404 0.725822 0.460826 0.407592 0.0618836 -0.453372 -0.510574 0.262924 -0.51053 0.170954 -1.35097 0.0948141 0.199997 0.57443 1.4246 0.499482 0.755794 -0.299754 -0.0245567 -0.075951 
0.836347 0.293104 -0.37203 -0.777801 -0.893535 -0.72273 0.396969 -1.00699 -0.387068 0.559389 -0.0770487 0.341229 -0.297106 0.020398 -0.316537 0.212765 0.494898 -0.734489 0.601779 0.207604 0.795757 -0.631152 0.699281 -0.583164 1.09135 -0.208426 -0.0101688 -0.157961 0.177627 -0.977581 0.359285 -1.03281 
-0.50035 0.186423 -0.142367 0.434572 -0.0148244 0.917875 0.449169 0.785066 -0.103376 -0.679277 -0.755543 -0.315272 -0.849144 -0.479659 -0.265215 0.455099 0.872467 0.780726 0.393013 0.262127 -1.0557 0.519486 -0.0975213 -0.628884 0.415038 -0.477323 -0.313687 -0.911216 -0.617443 -0.650583 -0.477781 0.603342 
1.14935 0.908987 0.454764 -0.105517 0.434981 0.789916 -0.856882 0.476535 0.205874 1.01463 0.598372 0.418805 1.16508 -0.3869 -0.379086 -0.194817 0.894947 -0.228389 1.04584 0.925128 -0.699116 0.552378 0.119684 0.262617 0.229671 0.756623 -0.336537 0.542906 -0.507796 0.161816 0.470939 -0.526807 
-0.4326 0.96104 0.453202 -0.257231 0.682027 -0.276011 -0.388101 -0.0458334 -0.0981371 0.718246 1.18969 -0.652194 -0.372598 0.832981 -0.648066 0.473027 -0.161392 -0.0138395 0.436933 0.712491 0.322759 0.160961 -0.704446 -0.132628 0.52831 0.705058 -0.0510602 0.0573045 -0.338189 0.0786057 0.442036 0.226292 
0.693622 -0.0430363 0.0940254 0.0435459 0.185384 0.306185 0.40249 0.853872 0.139912 0.481793 -0.766651 0.440206 0.00142338 -0.0465771 -0.61606 -0.135613 -0.433165 1.04839 -0.662568 0.269098 0.996974 -0.592326 0.309268 -0.339431 -1.00287 -0.372271 0.19806 -0.0881221 0.0676848 -0.531364 -0.744125 -0.177305 
-0.435378 0.68471 1.00295 0.0424747 0.11254 0.781037 -0.241813 -1.08852 -0.818817 -1.2331 -0.93806 -0.748098 0.748313 0.715649 0.561514 0.342719 -0.722417 -0.561235 -0.523261 -0.220914 -0.236609 -0.807456 1.43146 -0.20945 1.0038 -0.557968 -0.158851 0.198413 -1.11277 0.363775 0.10615 0.292436 
0.772251 0.407715 -0.00552816 -0.882181 0.848997 1.05256 -0.277063 0.477219 -0.567906 -0.326134 -0.0813939 0.188203 -0.380262 0.533198 -0.281061 0.81814 -0.0255797 -1.12135 0.617547 -0.517106 -0.36288 -0.257949 0.066839 -0.796499 0.156026 -0.280302 0.786506 -0.585233 -0.099136 0.267068 -0.766102 0.811294 
0.240919 -0.364424 -0.581034 0.132036 0.573999 0.776551 -0.381347 0.403184 -0.599634 -0.493651 -0.0375438 -0.218465 -0.626835 0.138471 -0.0433873 0.905687 0.107932 0.297952 0.559609 0.542483 -0.911911 0.292577 -0.361516 -0.183646 0.601968 0.0781429 -0.0286426 0.00925593 0.00919751 0.675929 0.185294 0.0155347 
0.148885 0.834024 -0.167108 0.0387739 0.353181 1.19351 -0.0428556 -0.579673 -0.643058 -1.01633 0.676915 0.341686 0.283663 -0.834463 0.249822 -0.231787 0.667757 -0.149078 0.412792 0.121922 0.415027 -0.256744 0.701149 0.0624405 0.548221 -0.873257 0.539868 -0.125942 -1.00073 -0.0226682 0.10549 -0.101629 
1.26715 -0.682162 -0.172272 0.0745507 0.264181 -0.476638 0.130166 0.652073 0.189206 0.696372 0.480874 0.727927 -0.514128 0.719922 -0.407993 -0.590035 0.154074 0.25783 -0.10627 0.267699 20 10
-0.957748 -0.596913 -0.0440267 -1.28956 0.0952966 1.58329 -0.268334 -0.395806 0.279077 -0.11538 0.696564 0.561269 -0.678141 1.02678 0.331968 -1.62522 0.458246 0.461189 -0.77579 -0.278924 
0.155876 1.17456 1.4746 -0.126974 0.693818 -1.11547 -0.223516 -0.351941 -0.695903 -0.577505 -0.124865 0.341688 0.312924 0.358403 -1.12885 -1.3427 0.432293 -0.684681 0.0109811 -0.423005 
0.569684 -0.598924 1.39928 0.0601954 -1.21943 0.780354 0.460215 0.460301 0.168387 -1.47106 0.613802 0.679542 -0.452108 0.27908 0.286267 0.730415 -1.20795 -0.773016 -1.2163 0.713858 
-0.0980051 0.511845 -0.865997 -1.30036 -0.549411 0.0765828 0.514975 0.42417 -0.442024 -1.30351 -0.514129 0.787082 -0.788023 0.79026 0.512409 0.960305 0.704162 -1.09994 -1.03816 0.093505 
-0.808696 0.493503 0.127754 -0.34684 -0.945196 -0.0976185 -0.0883877 0.95923 -0.62769 -0.0715035 1.00302 -1.05885 0.0394497 -1.40239 -1.1518 1.01179 -1.11918 -0.331735 -1.29056 -0.609129 
-0.442975 -0.365898 0.350038 -0.967539 0.722722 -0.789532 0.298109 -0.212165 0.822027 0.335055 -1.19376 0.640027 -1.07746 -0.625266 0.209712 -0.73266 0.0610417 -0.00696819 0.225844 -0.14173 
0.111391 -0.235763 -1.68557 0.0103708 0.239752 -1.28154 -0.983902 0.0844018 1.19463 -0.423131 0.979369 -0.00660745 0.501548 0.477722 1.45586 -0.253852 -1.01066 -0.967432 -1.02254 -1.03347 
0.750765 -1.56329 -0.96876 0.0311891 -0.0405554 0.668658 -1.14103 -1.59132 -1.0838 -0.421965 -0.284267 0.772638 0.513107 -1.19404 -0.790391 0.856782 0.128958 -0.253623 0.0765171 0.180238 
-0.0322687 -0.92661 -0.830175 0.153849 0.261979 -1.13311 -0.939054 0.280454 -0.843619 -0.164265 0.21005 -0.647523 -0.0792612 -1.06411 0.898081 -1.84869 0.456702 -0.384093 0.190603 -0.408416 
-1.31303 -0.0155886 -0.308056 0.0817737 -0.101448 0.296163 0.884637 0.722966 -0.255423 0.677155 -0.66028 0.255676 -1.1739 -1.4239 -0.496929 -0.352954 0.596182 -1.00474 0.307905 0.198358 
-1.11393 -1.00083 -1.16482 0.195552 0.416251 0.0868058 -0.75493 -0.664817 0.00196379 -0.627886 